{
    "biases": [
        [
            0.8979066014289856,
            0.6240607500076294,
            -1.4588953256607056,
            -0.5421461462974548,
            -0.1899726837873459,
            -0.5493847131729126,
            -1.7558685541152954,
            -1.9673837423324585,
            -0.890501856803894,
            0.19760294258594513,
            0.5164316296577454,
            -0.35920247435569763,
            2.1891613006591797,
            -0.0890834853053093,
            -1.1331744194030762,
            0.4530337452888489,
            -0.23028764128684998,
            -0.31148266792297363,
            -1.750837802886963,
            0.5598227977752686,
            0.6146805882453918,
            -0.9455125331878662,
            -0.4091012477874756,
            -1.2111842632293701,
            -0.9152390360832214,
            2.286885976791382,
            -1.0833848714828491,
            -0.8778088092803955,
            0.6423850059509277,
            -0.10335817188024521,
            -0.15585120022296906,
            -0.6467326283454895,
            -0.9200570583343506,
            -1.99785315990448,
            0.3512216806411743,
            0.5373899936676025,
            0.6060237884521484,
            -2.0548181533813477,
            0.8507015705108643,
            0.17322029173374176,
            0.18521398305892944,
            -1.1097902059555054,
            0.37321633100509644,
            -0.672563910484314,
            -1.3876807689666748,
            -1.0992153882980347,
            -1.0795302391052246,
            -0.27306991815567017,
            -0.07860210537910461,
            -0.09211265295743942,
            1.0907500982284546,
            0.09644389152526855,
            -0.2950374484062195,
            -1.2541160583496094,
            -0.4968259632587433,
            0.11194542795419693,
            -0.1695019006729126,
            1.4079642295837402,
            -0.5441628694534302,
            1.5450223684310913,
            0.6016424894332886,
            1.0083447694778442,
            2.3545656204223633,
            0.17596109211444855,
            -1.400871992111206,
            -1.6676191091537476,
            1.6116149425506592,
            0.9899421334266663,
            -1.7386112213134766,
            -0.5711202621459961,
            0.5571659207344055,
            -0.015266070142388344,
            -1.4747893810272217,
            -0.40466514229774475,
            -0.9040720462799072,
            1.142603874206543,
            0.6929770112037659,
            -1.1978400945663452,
            0.05142519995570183,
            -1.143188238143921,
            -0.07090811431407928,
            -0.6982774138450623,
            -0.284701406955719,
            1.1548115015029907,
            0.8655838966369629,
            0.3036963641643524,
            -1.3120969533920288,
            -2.1193063259124756,
            -2.225414514541626,
            0.20080795884132385,
            -0.9568008780479431,
            -0.33170977234840393,
            -2.7601466178894043,
            0.6132181286811829,
            -1.315891146659851,
            -0.9851727485656738,
            1.5028897523880005,
            -0.29824650287628174,
            -1.6719266176223755,
            -0.7127940058708191
        ],
        [
            -0.050895556807518005,
            0.6521126627922058,
            0.6996301412582397,
            -0.5161892771720886,
            0.315144419670105,
            -2.0085010528564453,
            -2.531482219696045,
            -0.1337401270866394,
            -0.8593798279762268,
            -2.7386293411254883
        ]
    ],
    "cost": "cross_entropy",
    "sizes": [
        784,
        100,
        10
    ],
    "weights": [
        [
            [
                0.0002393753529759124,
                -0.006463710218667984,
                0.05756552889943123,
                0.001999394968152046,
                0.04416804388165474,
                0.01524625439196825,
                -0.032302066683769226,
                -0.003915443550795317,
                -0.02093580551445484,
                -0.02696077525615692,
                -0.0335957296192646,
                0.053412001579999924,
                0.02996068447828293,
                0.0006859439890831709,
                -0.0018460304709151387,
                0.0163143090903759,
                0.010016675107181072,
                0.005006925202906132,
                0.0022092170547693968,
                0.05853404477238655,
                0.002170531079173088,
                -0.041902899742126465,
                0.019755270332098007,
                0.016397587954998016,
                0.011255505494773388,
                0.009442123584449291,
                0.0077844769693911076,
                0.02850896120071411,
                -0.01860121637582779,
                0.00045373517787083983,
                -0.01831504888832569,
                0.0014116483507677913,
                -0.00955895520746708,
                -0.0014055176870897412,
                -0.008479801006615162,
                -0.013271522708237171,
                -0.02189658023416996,
                0.009480193257331848,
                -0.036760710179805756,
                0.04350237548351288,
                -0.023928919807076454,
                0.02222886122763157,
                0.009715019725263119,
                -0.008012566715478897,
                0.002784630749374628,
                0.06372418254613876,
                0.020806193351745605,
                -0.043459199368953705,
                -0.013640672899782658,
                -0.02192266657948494,
                0.005492574069648981,
                -0.00145063700620085,
                -0.012037775479257107,
                0.018769605085253716,
                0.003087588818743825,
                0.015249454416334629,
                0.0073889861814677715,
                0.002787794219329953,
                -0.03028750792145729,
                0.0069886064156889915,
                -0.02309863269329071,
                -0.018755948171019554,
                0.0004989076405763626,
                -0.02198818139731884,
                -0.01447478961199522,
                0.018265193328261375,
                0.026112457737326622,
                0.012080579996109009,
                0.04851370304822922,
                0.0080844946205616,
                0.001995402853935957,
                -0.005334579385817051,
                0.006999208591878414,
                -0.002341803163290024,
                -0.04380248859524727,
                -0.00727909104898572,
                -0.010727548971772194,
                0.008020066656172276,
                -0.0324777327477932,
                0.04484473541378975,
                -0.008266151882708073,
                0.013905615545809269,
                0.020941218361258507,
                -0.01666177436709404,
                0.02983124367892742,
                0.006541615352034569,
                0.0074955918826162815,
                0.006125543732196093,
                0.001272335764952004,
                0.027763741090893745,
                0.033165305852890015,
                0.024373995140194893,
                0.003292728215456009,
                0.008941649459302425,
                -0.02025499939918518,
                0.012162473984062672,
                0.01871241070330143,
                0.03246426209807396,
                0.0514381043612957,
                0.003237723605707288
            ],
            [
                0.0026995737571269274,
                0.005923475604504347,
                -0.0010849367827177048,
                0.019914770498871803,
                0.005768046248704195,
                0.01145306508988142,
                0.0038657309487462044,
                -0.021101031452417374,
                -0.017574047669768333,
                -0.003354269778355956,
                0.011135715991258621,
                0.009332738816738129,
                0.01640014909207821,
                -0.03063523955643177,
                0.0006994267459958792,
                0.014130817726254463,
                -0.005967370700091124,
                -0.021891068667173386,
                -0.035803236067295074,
                0.02138468436896801,
                -0.0024940110743045807,
                -0.013784509152173996,
                -0.00926387682557106,
                0.01818554475903511,
                0.03450166806578636,
                0.046056151390075684,
                -0.006886051036417484,
                -0.020761050283908844,
                -0.012757712975144386,
                0.03386688232421875,
                0.0064611248672008514,
                0.024077599868178368,
                -0.0054154484532773495,
                -0.026905948296189308,
                -0.012310300953686237,
                0.003028861014172435,
                0.00040190460276789963,
                0.010033559054136276,
                0.026101665571331978,
                0.01926562376320362,
                0.002714046509936452,
                0.0017551593482494354,
                -0.03413623571395874,
                0.02984030544757843,
                0.0012978245504200459,
                -0.0028294427320361137,
                0.040325526148080826,
                -0.008569151163101196,
                -0.037788812071084976,
                -0.011787980794906616,
                0.004017885774374008,
                0.002513516927137971,
                0.008069019764661789,
                0.013199010863900185,
                0.023250266909599304,
                -0.0005883012781850994,
                -0.026887569576501846,
                0.0020954490173608065,
                -0.05822792649269104,
                -0.000189911006600596,
                0.0036773681640625,
                -0.0029239181894809008,
                -0.01013998407870531,
                0.09579062461853027,
                0.0020389787387102842,
                -0.02228217013180256,
                0.014773529954254627,
                -0.008537481538951397,
                0.008017383515834808,
                0.007109727710485458,
                -0.005060963332653046,
                -0.00014195045514497906,
                -0.014435033313930035,
                0.005734598729759455,
                -0.017991619184613228,
                0.03724183514714241,
                0.010496181435883045,
                0.031193599104881287,
                0.0011997292749583721,
                -0.0475836880505085,
                -0.021053163334727287,
                -0.025072475895285606,
                -0.007107979152351618,
                -0.00972460862249136,
                -0.004480542149394751,
                -0.01388331688940525,
                0.028710970655083656,
                0.022979477420449257,
                0.024987954646348953,
                -0.05646355450153351,
                0.010278502479195595,
                -0.027775270864367485,
                0.02604660764336586,
                -0.06677252799272537,
                0.020355848595499992,
                0.0011227058712393045,
                0.007181956898421049,
                0.015581497922539711,
                0.012501987628638744,
                -0.0260453000664711
            ],
            [
                0.03625361621379852,
                -0.004013381898403168,
                -0.0016278299735859036,
                -0.009520272724330425,
                -0.004057364072650671,
                0.012663595378398895,
                0.029346471652388573,
                -0.02023356594145298,
                -0.029558207839727402,
                -0.0010184887796640396,
                0.02765200473368168,
                -0.0007047699182294309,
                0.009468991309404373,
                -0.028894787654280663,
                -0.0021729767322540283,
                0.016550695523619652,
                0.004873551428318024,
                0.039630163460969925,
                0.006296232342720032,
                0.004689125809818506,
                -0.022684480994939804,
                0.0022729297634214163,
                0.030026864260435104,
                -0.011633024550974369,
                0.02101147547364235,
                0.007331373170018196,
                -0.03176539018750191,
                -0.021376105025410652,
                -0.00444417167454958,
                -9.983158088289201e-05,
                -0.0018500570440664887,
                -0.011368263512849808,
                0.01125059649348259,
                -0.016984805464744568,
                -0.01089858915656805,
                -0.02532941661775112,
                0.020004697144031525,
                -0.021712323650717735,
                -0.02786118909716606,
                0.014462891966104507,
                0.006180346943438053,
                0.00774874072521925,
                0.014345870353281498,
                -0.010997838340699673,
                -0.032651569694280624,
                0.031364165246486664,
                -0.031704872846603394,
                0.005365528631955385,
                0.0003222418308723718,
                0.01402494590729475,
                -0.002818364417180419,
                0.03809071704745293,
                -0.012842502444982529,
                0.028393391519784927,
                -0.00579966651275754,
                -0.02170781046152115,
                -0.036916334182024,
                -0.058997079730033875,
                0.011860920116305351,
                0.024488460272550583,
                0.012328792363405228,
                -0.004194020293653011,
                -0.011309756897389889,
                -0.03473522886633873,
                -0.012729075737297535,
                -0.0019474080763757229,
                -0.00341437803581357,
                -0.03245117887854576,
                -0.009439702145755291,
                -0.013628167100250721,
                0.003441175213083625,
                -0.00958461593836546,
                -0.029294438660144806,
                0.0017749136313796043,
                0.03131157159805298,
                -0.019571149721741676,
                0.044947538524866104,
                -0.005207363050431013,
                -0.007927540689706802,
                -0.007308278698474169,
                -0.040860190987586975,
                -0.01017527375370264,
                0.020546922460198402,
                0.007593579590320587,
                0.02538389340043068,
                0.0019771449733525515,
                -0.05808154493570328,
                0.006145223043859005,
                0.023223010823130608,
                0.005953423213213682,
                -0.010560144670307636,
                -0.01596592366695404,
                -0.024243930354714394,
                -0.01973447948694229,
                0.009311597794294357,
                -0.0077157337218523026,
                0.01180899515748024,
                -0.032885897904634476,
                0.0468684546649456,
                0.008680175058543682
            ],
            [
                0.03314489126205444,
                -0.03510686755180359,
                -0.009774257428944111,
                -0.002547517651692033,
                -0.06172066181898117,
                -0.012268535792827606,
                0.005074496380984783,
                0.014424446038901806,
                -0.001911101397126913,
                -0.004541563801467419,
                0.03641681745648384,
                0.015341895632445812,
                0.006135523319244385,
                0.009766471572220325,
                0.01806490682065487,
                0.011810632422566414,
                -0.01962042599916458,
                0.006141848396509886,
                0.011441374197602272,
                -0.012458119541406631,
                0.036894410848617554,
                0.008067750371992588,
                0.029878415167331696,
                0.013754457235336304,
                -0.018468353897333145,
                0.007641155738383532,
                0.03598784655332565,
                0.017513476312160492,
                0.0057206181809306145,
                0.0008373886812478304,
                -0.022122418507933617,
                0.001363139832392335,
                0.005890907719731331,
                0.025081809610128403,
                0.0019152963068336248,
                -0.04938778653740883,
                0.025900371372699738,
                0.005566416308283806,
                0.005643628537654877,
                -0.007732043974101543,
                -0.002018868224695325,
                -0.009229392744600773,
                -0.017425118014216423,
                0.011401275172829628,
                -0.021366100758314133,
                0.03617039695382118,
                -0.02071431837975979,
                -0.00400937395170331,
                -0.055940017104148865,
                0.024009309709072113,
                -0.026242943480610847,
                -0.004861044697463512,
                0.011428941041231155,
                0.019129661843180656,
                -0.0011647100327536464,
                0.008692830801010132,
                0.02284531109035015,
                0.014270969666540623,
                0.0025342190638184547,
                -0.013242468237876892,
                0.027141517028212547,
                -0.027638869360089302,
                0.017493458464741707,
                -0.008475683629512787,
                -0.018453722819685936,
                0.01132163405418396,
                0.004234251566231251,
                0.009611941874027252,
                0.04120383784174919,
                0.003635757602751255,
                0.0027799829840660095,
                0.020327847450971603,
                0.012952880933880806,
                0.016977613791823387,
                0.032044824212789536,
                -0.0440421961247921,
                -0.028738318011164665,
                -0.011213221587240696,
                -0.0015010510105639696,
                -0.019293153658509254,
                -0.015904754400253296,
                0.02715335413813591,
                0.04718974977731705,
                -0.04313730448484421,
                -0.007618359290063381,
                0.002889485564082861,
                -0.008217306807637215,
                -0.005520247854292393,
                0.015530970878899097,
                -0.014669622294604778,
                -0.038211263716220856,
                -0.01974533498287201,
                -0.030088013038039207,
                -0.015792641788721085,
                0.005558303091675043,
                0.03543100506067276,
                0.001409210730344057,
                -0.009755869396030903,
                0.021705923601984978,
                -0.015000350773334503
            ],
            [
                -0.003281066194176674,
                -0.023373780772089958,
                0.0007919708732515574,
                -0.03656144067645073,
                0.02920137532055378,
                0.011659087613224983,
                0.015817228704690933,
                -0.02843920700252056,
                0.0073857554234564304,
                -0.003652379149571061,
                -0.00397469662129879,
                -0.03383675962686539,
                0.0015898252604529262,
                0.010739949531853199,
                -0.0017407230334356427,
                0.016815444454550743,
                0.014611800201237202,
                -0.033274393528699875,
                -0.005082997493445873,
                -0.0051869917660951614,
                -0.00787950400263071,
                0.004452679306268692,
                -0.006600569933652878,
                -0.02470915950834751,
                0.008452216163277626,
                -0.04396389052271843,
                -0.031638916581869125,
                -0.004661771468818188,
                -0.005624997429549694,
                -0.001850381726399064,
                0.00785134918987751,
                0.018659165129065514,
                0.02347121387720108,
                0.025246400386095047,
                -0.0009347709128633142,
                0.003971204627305269,
                -0.007763909641653299,
                -0.014318525791168213,
                0.009672856889665127,
                -0.002337509300559759,
                -0.0009280617814511061,
                -0.0009109351667575538,
                0.01557514164596796,
                -0.01655559055507183,
                0.00808667205274105,
                -0.05027133598923683,
                -0.014058474451303482,
                0.03389276936650276,
                -0.02445482835173607,
                -0.015315131284296513,
                0.01169861201196909,
                -0.018998557701706886,
                0.0005478821112774312,
                -0.0035812531132251024,
                -0.028804827481508255,
                -0.05596223473548889,
                0.0031658096704632044,
                0.004787894431501627,
                -0.0042722043581306934,
                -0.020142599940299988,
                -0.0026174436789005995,
                -0.02810835652053356,
                -0.006657409947365522,
                0.007046735379844904,
                0.007338054943829775,
                0.003205203451216221,
                0.01473814994096756,
                -0.018330877646803856,
                -0.016250597313046455,
                -0.02487241104245186,
                -0.008766913786530495,
                0.028527455404400826,
                0.03639760613441467,
                -0.003211459144949913,
                -0.02925274707376957,
                -0.0075535280629992485,
                0.01788417622447014,
                -0.021664921194314957,
                0.009568539448082447,
                0.0381167009472847,
                -0.043248411267995834,
                -0.007573304232209921,
                0.024274036288261414,
                0.005126509349793196,
                0.0009793881326913834,
                0.02786242961883545,
                0.01660933904349804,
                0.007909613661468029,
                -0.030432065948843956,
                0.025455787777900696,
                -0.037518735975027084,
                0.02957836166024208,
                -0.001905325916595757,
                0.03436450660228729,
                0.050385359674692154,
                0.01622941344976425,
                -0.026157239452004433,
                -0.015261620283126831,
                0.01640617847442627,
                0.011374225839972496
            ],
            [
                0.013551205396652222,
                -0.01243327371776104,
                -0.021518267691135406,
                -0.004842284135520458,
                0.02743082493543625,
                -0.03387916460633278,
                -0.03362458199262619,
                -0.009277365170419216,
                0.0010855818400159478,
                -0.008138184435665607,
                -0.03735858574509621,
                0.03352756425738335,
                0.01749761961400509,
                0.01692754030227661,
                0.02729625813663006,
                -0.03268928825855255,
                -0.00033843948040157557,
                0.0066091506741940975,
                0.010329939424991608,
                0.04455172270536423,
                -0.005407319404184818,
                0.012447113171219826,
                -0.010962897911667824,
                -0.009304464794695377,
                -0.04364660382270813,
                0.026350706815719604,
                0.024718105792999268,
                -0.0325767919421196,
                0.022244809195399284,
                0.01921594701707363,
                -0.010945397429168224,
                0.004726385232061148,
                0.009137826040387154,
                0.016244705766439438,
                -0.011988164857029915,
                -0.012561975978314877,
                0.015760133042931557,
                -0.003941422328352928,
                0.04679741710424423,
                0.033526863902807236,
                -0.029587944969534874,
                -0.015913762152194977,
                -0.015973232686519623,
                -0.03037586621940136,
                -0.0028200733941048384,
                -0.0035990432370454073,
                -0.03365913778543472,
                0.00394018366932869,
                0.017072860151529312,
                0.014245359227061272,
                -0.02424468658864498,
                0.020059749484062195,
                -0.03698068484663963,
                0.012950445525348186,
                0.0010939327767118812,
                -0.03282640874385834,
                -0.020311402156949043,
                0.017562352120876312,
                0.026379814371466637,
                0.009280892089009285,
                -0.007947776466608047,
                0.004322376102209091,
                -0.007615548092871904,
                0.03324240446090698,
                -0.03331528976559639,
                -0.011767278425395489,
                0.03016483038663864,
                -0.03121243044734001,
                -0.02283458225429058,
                -0.04283609241247177,
                -0.018920009955763817,
                0.033490438014268875,
                -0.006745768710970879,
                -0.027450906112790108,
                0.042117197066545486,
                0.014441477134823799,
                -0.023241562768816948,
                -0.0003925938799511641,
                -0.012740137055516243,
                0.00914333388209343,
                -0.03528669476509094,
                0.003773333504796028,
                -0.01071859709918499,
                0.0024803178384900093,
                -0.01930389367043972,
                -0.04207933321595192,
                -0.04740370064973831,
                0.015743909403681755,
                -0.008852340281009674,
                0.002935601631179452,
                -0.034701623022556305,
                0.01818733662366867,
                -0.01659112237393856,
                0.010987184941768646,
                0.015856560319662094,
                -0.0044607119634747505,
                -0.03554216027259827,
                -0.02903636544942856,
                0.007423765491694212,
                -0.01590988039970398
            ],
            [
                0.01647013984620571,
                0.012453090399503708,
                0.01465423870831728,
                0.02651127241551876,
                -0.01922575570642948,
                -0.0013121167430654168,
                0.003013504669070244,
                0.03251563012599945,
                -0.01604892686009407,
                -0.023878246545791626,
                0.02188079059123993,
                0.005172207951545715,
                -0.031794410198926926,
                -0.0008691416587680578,
                -0.029422512277960777,
                0.030050085857510567,
                -0.007827647030353546,
                0.002914778422564268,
                -0.005881914868950844,
                0.006383651401847601,
                -0.01873040944337845,
                -0.009807008318603039,
                0.0033486823085695505,
                -0.024059360846877098,
                -0.003446947317570448,
                0.0146716870367527,
                -0.015885140746831894,
                0.0067522721365094185,
                0.01246519573032856,
                0.003143338719382882,
                0.019514210522174835,
                0.03199514001607895,
                0.013493083417415619,
                -0.014011923223733902,
                0.0073158820159733295,
                -0.02371199056506157,
                0.03319169580936432,
                -0.02584899589419365,
                0.02900867909193039,
                0.030671119689941406,
                0.028633641079068184,
                0.03136257827281952,
                0.014246641658246517,
                0.01629423350095749,
                0.024407515302300453,
                -0.0059590330347418785,
                -0.014988824725151062,
                0.00215379917062819,
                0.023452168330550194,
                0.019861526787281036,
                -0.003208114067092538,
                -0.016644984483718872,
                -0.008377086371183395,
                0.005281530320644379,
                -0.020852643996477127,
                -0.010833216831088066,
                -0.013983824290335178,
                -0.004703037440776825,
                0.029246794059872627,
                0.007119340822100639,
                0.0037505177315324545,
                -0.02171049267053604,
                0.01280480157583952,
                0.013073301874101162,
                -0.0006420278223231435,
                0.017594264820218086,
                -0.0020482742693275213,
                0.005199742503464222,
                -0.01614597998559475,
                0.03985315561294556,
                -0.013572930358350277,
                0.03917641565203667,
                0.02427178993821144,
                -0.0005809868453070521,
                0.06513852626085281,
                -0.01087908074259758,
                0.01559116505086422,
                0.01949302665889263,
                -0.001948788296431303,
                0.011368928477168083,
                0.027724504470825195,
                0.02094733715057373,
                0.021546678617596626,
                -0.01739250309765339,
                0.01356835663318634,
                0.025651846081018448,
                0.022612428292632103,
                -0.014938614331185818,
                0.002097311895340681,
                -0.04181225970387459,
                0.014155272394418716,
                0.012489723972976208,
                -0.010292763821780682,
                -0.017729122191667557,
                0.028225839138031006,
                -0.011724399402737617,
                0.03622190281748772,
                0.004093291237950325,
                -0.016138998791575432,
                0.015871237963438034
            ],
            [
                0.000970744586084038,
                -0.011301298625767231,
                0.00852795410901308,
                0.015756668522953987,
                -0.006615272257477045,
                -0.04104703664779663,
                -0.008205504156649113,
                0.0414908304810524,
                -0.02598901465535164,
                -0.0019274791702628136,
                -0.014724690467119217,
                -0.010280727408826351,
                0.0032637454569339752,
                -0.004483227152377367,
                -0.01715412549674511,
                -0.021863995119929314,
                -0.016902072355151176,
                0.027909839525818825,
                -0.005107451695948839,
                0.02098212204873562,
                -0.0030556560959666967,
                -0.01778462342917919,
                0.04734669625759125,
                -0.022465655580163002,
                0.01783735305070877,
                0.01847115159034729,
                -0.00010083706729346886,
                -0.009574836120009422,
                -0.019796080887317657,
                0.032777901738882065,
                -0.0024558035656809807,
                -0.04602828249335289,
                -0.0032777830492705107,
                -0.017913930118083954,
                0.022300245240330696,
                -0.012407809495925903,
                -0.011578723788261414,
                0.029689934104681015,
                -0.026226265355944633,
                -0.029984280467033386,
                0.0007371923420578241,
                -0.017888415604829788,
                0.0031834144610911608,
                -0.01911107450723648,
                -0.0076315985061228275,
                -0.003539005760103464,
                -0.013270840980112553,
                -0.008810211904346943,
                -0.015315365977585316,
                -0.026357699185609818,
                0.05182068794965744,
                0.014270089566707611,
                -0.010473591275513172,
                -0.00703844428062439,
                -0.03178555518388748,
                0.0025176277849823236,
                0.012358301319181919,
                0.0425441600382328,
                -0.016312597319483757,
                0.009096518158912659,
                -0.02332524210214615,
                -0.006446795538067818,
                0.006288554519414902,
                0.018734989687800407,
                0.008126530796289444,
                -0.017230765894055367,
                0.012154055759310722,
                0.032483600080013275,
                -0.023969832807779312,
                0.0004092147864867002,
                -0.002396255498751998,
                0.028403520584106445,
                -0.0018175600562244654,
                0.010929258540272713,
                0.0005155178369022906,
                0.007044865749776363,
                0.00824731308966875,
                0.013349798507988453,
                0.01757938228547573,
                -0.029090747237205505,
                -0.001839046715758741,
                -0.011428670026361942,
                0.031458426266908646,
                0.03661848604679108,
                -0.019656043499708176,
                0.02352442406117916,
                -0.04026242718100548,
                0.028950240463018417,
                -0.00989928375929594,
                -0.03245822340250015,
                0.01344381459057331,
                0.01414024643599987,
                0.0018653408624231815,
                0.00808186549693346,
                -0.00914571713656187,
                -0.0036550380755215883,
                -0.0038836130406707525,
                0.013701703399419785,
                -0.02492152899503708,
                0.01717989891767502
            ],
            [
                0.017061183229088783,
                -0.02154996059834957,
                -0.04560782015323639,
                -0.004780175630003214,
                -0.020734820514917374,
                0.010766180232167244,
                -0.028361499309539795,
                0.004814505111426115,
                -0.032945726066827774,
                0.03867143392562866,
                0.021213825792074203,
                0.018335746601223946,
                0.025525441393256187,
                -0.013700542971491814,
                0.02002616785466671,
                -0.0013892120914533734,
                0.008352302946150303,
                -0.0011502428678795695,
                0.00032300601014867425,
                0.00704811979085207,
                -0.011383901350200176,
                -0.005439372733235359,
                -0.008645514026284218,
                0.002420812612399459,
                0.005127225071191788,
                0.02478700503706932,
                0.01283811405301094,
                0.01666898839175701,
                -0.007703418843448162,
                -0.0405493788421154,
                0.020249461755156517,
                -0.017625104635953903,
                -0.013802571222186089,
                0.009704879485070705,
                -0.012315209023654461,
                0.0009632782312110066,
                -0.020297378301620483,
                0.02230333723127842,
                0.010437645018100739,
                -0.01883394457399845,
                0.0029243058525025845,
                0.051200658082962036,
                0.0011463596019893885,
                -0.03021661564707756,
                -0.005125273950397968,
                0.00405924441292882,
                -0.046344973146915436,
                -0.02197420969605446,
                0.03697637841105461,
                0.012892336584627628,
                -0.01915515400469303,
                -0.02540276199579239,
                -0.013961263932287693,
                0.025073368102312088,
                0.030738310888409615,
                0.05030381679534912,
                -0.0057669938541948795,
                -0.01589318737387657,
                -0.009711496531963348,
                -0.04174548387527466,
                0.022361140698194504,
                -0.00986186321824789,
                -0.04029859974980354,
                -0.035357777029275894,
                -0.015049081295728683,
                -0.003949033562093973,
                -0.046687882393598557,
                0.007185305468738079,
                -0.010537903755903244,
                0.02223791740834713,
                0.008944633416831493,
                0.015669722110033035,
                -0.012036612257361412,
                -0.021051734685897827,
                0.013300783932209015,
                -0.029356857761740685,
                -0.0046012308448553085,
                0.004786728415638208,
                -0.023586858063936234,
                -0.041744109243154526,
                -0.014111421070992947,
                -0.038320183753967285,
                -0.014137959107756615,
                0.002056170254945755,
                0.041099485009908676,
                0.01173009630292654,
                0.036660563200712204,
                0.02735947258770466,
                -0.01653585210442543,
                -0.06735668331384659,
                -0.02798258699476719,
                0.017359741032123566,
                0.008464203216135502,
                -0.023089958354830742,
                -0.005413246341049671,
                -0.03871823847293854,
                0.006490910425782204,
                0.013163506984710693,
                -0.00107528583612293,
                0.04337308183312416
            ],
            [
                -0.005187904927879572,
                -0.02730717696249485,
                0.0374140702188015,
                0.015139247290790081,
                -0.004646642599254847,
                -0.02124844677746296,
                -0.0057722702622413635,
                0.04690077155828476,
                0.0188347976654768,
                -0.0197446346282959,
                0.03966221585869789,
                -0.002939595142379403,
                0.0264056995511055,
                0.015386231243610382,
                -0.0009028187487274408,
                -0.012656988576054573,
                -0.011670084670186043,
                0.002701535588130355,
                0.008845939300954342,
                -0.014472436159849167,
                -0.014163518324494362,
                0.010442383587360382,
                0.023077229037880898,
                0.002422926714643836,
                -0.0037690370809286833,
                0.004338545259088278,
                0.05124761164188385,
                0.029020290821790695,
                0.061703622341156006,
                0.015051440335810184,
                0.0012953365221619606,
                0.01240133959800005,
                -0.0036989052314311266,
                0.011195500381290913,
                -0.010035230778157711,
                -0.03281974419951439,
                -0.02030586637556553,
                0.0007479550549760461,
                -0.017838576808571815,
                -0.021810060366988182,
                0.008214622735977173,
                0.00026891109882853925,
                -0.0017995880916714668,
                0.022701431065797806,
                0.02009919472038746,
                0.002735487185418606,
                0.010094048455357552,
                -0.03426235914230347,
                0.0007846003281883895,
                -0.02286500670015812,
                0.03523706644773483,
                -0.003079069312661886,
                0.014659716747701168,
                -0.014757881872355938,
                -0.0181285347789526,
                -9.298657096223906e-05,
                -0.026919789612293243,
                0.006337322760373354,
                -0.004513185936957598,
                0.030551550909876823,
                0.029093731194734573,
                0.0022833694238215685,
                -0.010240108706057072,
                0.00040547450771555305,
                0.019296346232295036,
                -0.009155887179076672,
                0.030570344999432564,
                0.006972768809646368,
                -0.0015567312948405743,
                -0.0015496376436203718,
                0.03863399475812912,
                0.017520295456051826,
                -0.016056952998042107,
                0.001764386659488082,
                -0.02021881751716137,
                0.009712730534374714,
                -0.002926088171079755,
                0.01215725764632225,
                0.02119615487754345,
                0.012310649268329144,
                -0.011820361949503422,
                0.023874813690781593,
                0.00014633296814281493,
                -0.01773773692548275,
                -0.012031158432364464,
                -0.009401030838489532,
                0.010510938242077827,
                0.04748323932290077,
                0.023582613095641136,
                -0.007834100164473057,
                0.013496586121618748,
                0.041687872260808945,
                -0.009334715083241463,
                -0.00948750413954258,
                -0.017831718549132347,
                0.031901225447654724,
                0.004326843656599522,
                0.014382830820977688,
                0.02021639235317707,
                -0.024269001558423042
            ],
            [
                0.024001147598028183,
                -0.013547252863645554,
                -0.03476014360785484,
                -0.014284227043390274,
                -0.0184777919203043,
                0.03524864837527275,
                -0.05658664554357529,
                0.04685226455330849,
                -0.0170609001070261,
                0.014039061032235622,
                -0.007861750200390816,
                -0.016076823696494102,
                0.03007202036678791,
                -0.0025996174663305283,
                0.02017929218709469,
                0.004007317591458559,
                -0.001984148984774947,
                0.0331714041531086,
                -0.011545331217348576,
                -0.009376160800457,
                0.003368451027199626,
                -0.02304917760193348,
                0.02226928249001503,
                0.012405524030327797,
                0.004577886313199997,
                -0.07035627216100693,
                0.010841174982488155,
                0.03615398705005646,
                0.036574430763721466,
                0.00014584255404770374,
                0.009570612572133541,
                0.009381710551679134,
                0.0015064815524965525,
                0.009024210274219513,
                -0.04110568389296532,
                -0.0068949745036661625,
                0.0045796530321240425,
                -0.05619340389966965,
                0.002262485446408391,
                -0.0005248663364909589,
                -0.011147783137857914,
                0.01381553802639246,
                -0.004864286631345749,
                -0.016115883365273476,
                -0.010018043220043182,
                -0.009599545039236546,
                0.027677584439516068,
                0.012902813032269478,
                0.0010249188635498285,
                0.022998573258519173,
                0.02354426309466362,
                0.03898758441209793,
                0.0285295732319355,
                -0.009542671963572502,
                -0.015691347420215607,
                -0.0030195927247405052,
                -0.0013254124205559492,
                -0.006844709627330303,
                -0.04123134911060333,
                -0.01263895258307457,
                0.016553565859794617,
                0.020528387278318405,
                0.034295208752155304,
                0.008409841917455196,
                0.015392319299280643,
                0.03690837696194649,
                8.844179683364928e-05,
                -0.024092378094792366,
                -0.008400708436965942,
                0.0023207205813378096,
                0.020518658682703972,
                0.01266191154718399,
                -0.011604906991124153,
                0.004367175046354532,
                0.02475946955382824,
                -0.023220669478178024,
                -0.01699906215071678,
                -0.025090862065553665,
                -0.057460617274045944,
                -0.020190762355923653,
                0.024802695959806442,
                0.01839841529726982,
                0.008527505211532116,
                -0.036243218928575516,
                -0.003124968381598592,
                0.0012348422314971685,
                0.026650546118617058,
                -0.022755272686481476,
                0.002267950912937522,
                0.03423086553812027,
                -0.018295392394065857,
                0.01163106132298708,
                -0.038576092571020126,
                0.03578123077750206,
                -0.0006903257453814149,
                0.03559810295701027,
                -0.021761124953627586,
                0.012681575492024422,
                0.002548061078414321,
                -0.05047495290637016
            ],
            [
                0.0053369347006082535,
                -0.00782084185630083,
                0.021111750975251198,
                0.03356627747416496,
                -0.06124281883239746,
                -0.021656464785337448,
                0.03483201935887337,
                -0.0012367051094770432,
                -0.02005552500486374,
                0.060437917709350586,
                0.0067123291082680225,
                -0.005362751428037882,
                -0.0313224121928215,
                -0.024825500324368477,
                -0.00809396430850029,
                -0.046274833381175995,
                0.009470773860812187,
                -0.0007783405599184334,
                -0.027795549482107162,
                -0.02456614188849926,
                0.00025480930344201624,
                0.03610135242342949,
                -0.02031560242176056,
                0.048571523278951645,
                0.0471532978117466,
                -0.03146366775035858,
                -0.0031379899010062218,
                -0.0035037528723478317,
                -0.008054316975176334,
                -0.01866092160344124,
                -0.00801640935242176,
                0.016181377694010735,
                -0.005020346026867628,
                -0.009122534655034542,
                0.012606355361640453,
                -0.04894741624593735,
                0.011523913592100143,
                -0.04189901053905487,
                0.02159920707345009,
                -0.01704992726445198,
                0.0045928917825222015,
                0.01765194907784462,
                0.038018953055143356,
                -0.02679513953626156,
                0.0012401565909385681,
                0.020807361230254173,
                0.00970083475112915,
                6.07153597229626e-05,
                -0.05201180651783943,
                0.023285409435629845,
                -0.031081456691026688,
                -0.031987737864255905,
                -0.01043536327779293,
                0.029404031112790108,
                -0.009421135298907757,
                -0.007896119728684425,
                0.009866325184702873,
                0.007107192650437355,
                -0.016866816207766533,
                0.005430658347904682,
                0.017921000719070435,
                -0.03793979436159134,
                0.00854543223977089,
                -0.009613554924726486,
                -0.011120544746518135,
                0.03193548321723938,
                0.012506335973739624,
                -0.0012182032223790884,
                0.016189591959118843,
                0.017746785655617714,
                -0.0031733387149870396,
                0.006598711013793945,
                -0.0026332950219511986,
                0.0020267374347895384,
                0.02529475837945938,
                -0.009839416481554508,
                0.042614080011844635,
                0.02828468382358551,
                -0.023581037297844887,
                0.010450568050146103,
                0.022330038249492645,
                -0.013381020165979862,
                -0.02742021717131138,
                0.02884160540997982,
                0.008375803008675575,
                -0.058493003249168396,
                -0.01766952872276306,
                0.03494179993867874,
                -0.02175156958401203,
                -0.06644187867641449,
                0.0024717424530535936,
                -0.027286453172564507,
                0.04553736746311188,
                0.024165567010641098,
                -0.035528574138879776,
                -0.03586018458008766,
                -0.01310365553945303,
                -0.0020589798223227262,
                0.0069099413231015205,
                -0.016823936253786087
            ],
            [
                -0.014974965713918209,
                0.002957024844363332,
                0.008729503490030766,
                0.0059797088615596294,
                0.010063369758427143,
                -0.021916260942816734,
                0.013797173276543617,
                0.0041994634084403515,
                0.008697819896042347,
                -0.04979141056537628,
                -0.00477678794413805,
                -0.010958951897919178,
                0.008390008471906185,
                -0.003431190736591816,
                0.028410043567419052,
                0.0038591772317886353,
                -0.01735096611082554,
                -0.0063870917074382305,
                0.016334010288119316,
                0.029567483812570572,
                0.0008589558419771492,
                0.019549114629626274,
                0.009737600572407246,
                -0.008831617422401905,
                -0.012059329077601433,
                -0.0015397981042042375,
                0.0223628431558609,
                -0.05008707568049431,
                0.01743234694004059,
                0.04523155093193054,
                -0.010051277466118336,
                -0.004259937908500433,
                -0.00847729854285717,
                0.005251266993582249,
                0.010279092937707901,
                0.019101593643426895,
                0.008430350571870804,
                0.029614288359880447,
                -0.008353178389370441,
                -0.022600261494517326,
                0.007049405947327614,
                0.0032769055105745792,
                0.013227323070168495,
                -0.028447261080145836,
                -0.011367530561983585,
                0.001456311671063304,
                -0.02221035771071911,
                -0.00657534459605813,
                -0.002988441614434123,
                0.041667353361845016,
                -0.021195463836193085,
                0.033126100897789,
                0.00665289955213666,
                0.03059961274266243,
                -0.00465613417327404,
                0.0028738295659422874,
                -0.014503384940326214,
                -0.01787644997239113,
                -0.02376873604953289,
                0.01197066716849804,
                0.0029855293687433004,
                0.024892263114452362,
                -0.0021921724546700716,
                -0.02371310628950596,
                -0.031604938209056854,
                0.008254414424300194,
                0.004397709853947163,
                -0.0002393560134805739,
                -0.004094068892300129,
                -0.04377441480755806,
                0.014004684053361416,
                0.04705774784088135,
                -0.02066982537508011,
                0.031388748437166214,
                -0.010560140013694763,
                0.015562773682177067,
                0.00029749941313639283,
                0.0381530299782753,
                -0.02363712713122368,
                -0.027915680781006813,
                -0.0009755606297403574,
                0.005471047013998032,
                -0.009241578169167042,
                -0.020821860060095787,
                0.03709283843636513,
                -0.0016810978995636106,
                0.02310081012547016,
                0.0027173233684152365,
                0.0017313052667304873,
                0.02097729779779911,
                0.03431610390543938,
                0.006878736428916454,
                0.02445990964770317,
                -0.04763472080230713,
                0.0019606766290962696,
                -0.015266397036612034,
                0.008426008746027946,
                0.01357372384518385,
                0.018550366163253784,
                0.015163355506956577
            ],
            [
                0.021243110299110413,
                -0.024063322693109512,
                -0.02186020277440548,
                -0.014138040132820606,
                0.028368055820465088,
                -0.009119145572185516,
                0.01449630782008171,
                0.0057973917573690414,
                0.010845097713172436,
                -0.04560006037354469,
                -0.002424452221021056,
                -0.01070084422826767,
                -0.017427612096071243,
                0.0410277359187603,
                -0.016731588169932365,
                0.002747268881648779,
                0.0011787330731749535,
                -0.021450791507959366,
                0.02884085103869438,
                0.037093374878168106,
                -0.031963277608156204,
                -0.028483737260103226,
                0.026847070083022118,
                0.005837173201143742,
                0.010501584969460964,
                -0.018908929079771042,
                0.0061759441159665585,
                -0.009131756611168385,
                0.04208983853459358,
                0.0072152200154960155,
                -0.02972790226340294,
                -0.005134238861501217,
                0.023098768666386604,
                0.01011570729315281,
                -0.003718567080795765,
                0.04038330167531967,
                -0.021648116409778595,
                0.023161057382822037,
                -0.03881089389324188,
                -0.0027827329467982054,
                -0.019317487254738808,
                -0.01074912492185831,
                -0.01374434120953083,
                -0.03384096920490265,
                -0.004100663587450981,
                0.017439663410186768,
                0.04799896478652954,
                -0.00039559791912324727,
                0.008016333915293217,
                0.002487644087523222,
                -0.014263736084103584,
                0.028286099433898926,
                0.03585460036993027,
                -0.005229524336755276,
                -0.007496758364140987,
                -0.026638103649020195,
                -0.02431773953139782,
                0.030895527452230453,
                0.034896135330200195,
                0.006196542177349329,
                0.014057124964892864,
                -0.0034081689082086086,
                0.015556594356894493,
                0.008644893765449524,
                -0.006585521157830954,
                -0.017522426322102547,
                0.02210700698196888,
                0.0022612083703279495,
                -0.04707203060388565,
                0.00994145218282938,
                -0.03166654706001282,
                -0.02680826187133789,
                -0.003251577727496624,
                -0.03464765474200249,
                0.030844712629914284,
                -0.0040777623653411865,
                -0.023395635187625885,
                0.025052325800061226,
                -0.007558874785900116,
                0.01055589597672224,
                0.009724676609039307,
                0.009454147890210152,
                0.008355431258678436,
                -0.03472236543893814,
                0.015571961179375648,
                -0.025722196325659752,
                -0.026347946375608444,
                0.01841452345252037,
                -0.008318668231368065,
                0.021517081186175346,
                -0.002590922638773918,
                -0.05272980034351349,
                0.0035797187592834234,
                -0.013383293524384499,
                0.03391847386956215,
                0.022496309131383896,
                0.034598466008901596,
                0.011084136553108692,
                0.04978956654667854,
                0.04959793761372566
            ],
            [
                -0.033398643136024475,
                -0.04917902499437332,
                0.041994888335466385,
                0.02915634587407112,
                -0.016061460599303246,
                -0.011913644149899483,
                0.03403446450829506,
                0.0329735167324543,
                0.021051453426480293,
                -0.022010551765561104,
                0.010018284432590008,
                -0.013861618004739285,
                -0.009708253666758537,
                -0.021637173369526863,
                -0.0003405020688660443,
                0.028072044253349304,
                -0.0026994075160473585,
                0.010740367695689201,
                0.006942312233150005,
                0.01095657516270876,
                -0.009387067519128323,
                -0.019205691292881966,
                0.018519258126616478,
                0.05650912970304489,
                -0.011899668723344803,
                0.0066642602905631065,
                0.01166415773332119,
                0.008119368925690651,
                -0.018902013078331947,
                0.01259635854512453,
                -0.02831750363111496,
                0.004195006564259529,
                0.012108824215829372,
                0.0694107785820961,
                -0.028376659378409386,
                -0.023318862542510033,
                -0.022012600675225258,
                0.016869425773620605,
                0.023696856573224068,
                -0.0060411905869841576,
                -0.031160902231931686,
                0.012854798696935177,
                -0.008105085231363773,
                0.0070731001906096935,
                -0.027353418990969658,
                -0.03387349471449852,
                -0.006922677159309387,
                -0.016752097755670547,
                0.004296143539249897,
                -0.008594032377004623,
                0.010665753856301308,
                0.008580471388995647,
                -0.00016749250062275678,
                -0.008561081252992153,
                -0.032679472118616104,
                0.021195722743868828,
                -0.003448877250775695,
                0.013487319462001324,
                -0.029555343091487885,
                0.015162632800638676,
                0.03157598152756691,
                0.01115457247942686,
                -0.00016916148888412863,
                -0.02298109233379364,
                -0.000991433160379529,
                -0.017508819699287415,
                -0.017468106001615524,
                0.012698337435722351,
                0.017696499824523926,
                0.019156096503138542,
                0.01720999926328659,
                0.008103539235889912,
                0.021589303389191628,
                -0.0014929472235962749,
                -0.03183411434292793,
                -0.015574515797197819,
                -0.0016931643476709723,
                0.01643618755042553,
                0.03861379995942116,
                -0.016507579013705254,
                0.00927842315286398,
                -0.027026109397411346,
                0.0034987544640898705,
                0.017161644995212555,
                -0.009001500904560089,
                -0.03889371454715729,
                0.0036732684820890427,
                -0.017559343948960304,
                -0.05247214809060097,
                -0.010115807875990868,
                -0.010104922577738762,
                0.0038478958886116743,
                0.0014556958340108395,
                -0.000685984268784523,
                -0.011395844630897045,
                0.021739725023508072,
                0.03160775452852249,
                -0.00675212824717164,
                -0.03487663343548775,
                -0.0007709073252044618
            ],
            [
                -0.024603737518191338,
                0.032219208776950836,
                0.03341996297240257,
                -0.0346112996339798,
                0.06574250757694244,
                -0.027972256764769554,
                -0.03501509502530098,
                -0.06533513218164444,
                0.010978070087730885,
                0.004839261993765831,
                -0.004957384429872036,
                -0.012068239971995354,
                0.030447807163000107,
                0.004562238231301308,
                -0.003155423328280449,
                0.01890440285205841,
                -0.007903367280960083,
                0.0005371457082219422,
                0.023626482114195824,
                0.033954568207263947,
                -0.02220808155834675,
                -0.02320130169391632,
                0.0052477093413472176,
                -0.033476825803518295,
                -0.0017292766133323312,
                -0.005985085386782885,
                0.034291110932826996,
                -0.010555649176239967,
                0.011807255446910858,
                0.05272051692008972,
                -0.006995031144469976,
                -0.00836143922060728,
                0.009342357516288757,
                -0.014826240949332714,
                0.000456657144241035,
                0.017579246312379837,
                -0.032564807683229446,
                0.016179975122213364,
                0.0039057349786162376,
                0.009236807934939861,
                0.023714963346719742,
                0.008883535861968994,
                -0.06181245297193527,
                -0.0031242279801517725,
                0.034888092428445816,
                0.041017696261405945,
                -0.03344923257827759,
                0.0072228750213980675,
                -0.01879463531076908,
                0.013099238276481628,
                0.016999321058392525,
                -0.025696059688925743,
                -0.029235610738396645,
                0.03916720300912857,
                0.031302690505981445,
                0.006764540448784828,
                0.02394464612007141,
                0.025713233277201653,
                -0.025558192282915115,
                0.018150292336940765,
                -0.041113343089818954,
                -0.0038535422645509243,
                0.0002577942796051502,
                -0.020484190434217453,
                0.0005493863136507571,
                -0.030503660440444946,
                -0.028294889256358147,
                0.01918659545481205,
                -0.005550139117985964,
                -0.02062034048140049,
                -0.03743933513760567,
                -0.011707648634910583,
                -0.036184508353471756,
                0.000909213675186038,
                0.032426949590444565,
                0.005542732775211334,
                -0.0066541885025799274,
                -0.030868344008922577,
                0.0025007459335029125,
                -0.014779971912503242,
                -0.01596689224243164,
                -0.005080902948975563,
                0.025546399876475334,
                0.017239779233932495,
                -0.027739964425563812,
                0.025062110275030136,
                -0.0060785384848713875,
                -0.02642796002328396,
                -0.02710530161857605,
                0.004198773298412561,
                0.016540734097361565,
                -0.0038479191716760397,
                -0.027667365968227386,
                0.02401178888976574,
                -0.001743394648656249,
                -0.005855498369783163,
                0.02424038015305996,
                -0.015619978308677673,
                0.02095688134431839,
                0.01400415413081646
            ],
            [
                -0.012970898300409317,
                -0.00020143226720392704,
                0.0049206712283194065,
                0.008763969875872135,
                -0.008794546127319336,
                0.024245871230959892,
                -0.006215144880115986,
                0.0007033090805634856,
                -0.00102304108440876,
                -0.017038486897945404,
                -0.024663688614964485,
                0.03253079578280449,
                -0.007573738228529692,
                0.0029013368766754866,
                0.011802424676716328,
                -0.012768400833010674,
                -0.03623221069574356,
                -0.015595631673932076,
                -0.009651300497353077,
                -0.01661369949579239,
                0.00613299710676074,
                -0.025730693712830544,
                0.0054338108748197556,
                -0.007070368155837059,
                0.0076889353804290295,
                -0.003996009007096291,
                0.03352225944399834,
                -0.013938010670244694,
                -0.01331255491822958,
                -0.008073313161730766,
                -0.019112659618258476,
                -0.00884766411036253,
                0.03610881790518761,
                0.003480159677565098,
                0.01000830065459013,
                -0.017394842579960823,
                -0.031600091606378555,
                -0.029893646016716957,
                0.01714249700307846,
                0.009770426899194717,
                -0.012877979315817356,
                -0.019588878378272057,
                -0.025060629472136497,
                0.017861349508166313,
                -0.0049433158710598946,
                -0.048656243830919266,
                -0.002688832813873887,
                -0.008232747204601765,
                0.03322421759366989,
                -0.0005593922105617821,
                -0.012923489324748516,
                -0.0008770641288720071,
                -0.0028728614561259747,
                -0.04634898155927658,
                0.013375286012887955,
                0.009884955361485481,
                -0.018567776307463646,
                -0.014667382463812828,
                -0.017957042902708054,
                -0.02591721899807453,
                -0.009095937944948673,
                -0.006376789417117834,
                -0.023629767820239067,
                0.029176577925682068,
                -0.049144670367240906,
                0.015598755329847336,
                0.0229976586997509,
                0.009557983838021755,
                0.00022206844005268067,
                0.009622989222407341,
                -0.0216747485101223,
                0.025810273364186287,
                0.02004537731409073,
                -0.03422889858484268,
                -0.014461918734014034,
                -0.026311799883842468,
                -0.02579653449356556,
                0.001959801185876131,
                -0.0008496480877511203,
                -0.02075549215078354,
                0.02686241641640663,
                -0.001501956139691174,
                0.005075603257864714,
                0.018134307116270065,
                -0.018348559737205505,
                0.010422664694488049,
                -0.010874741710722446,
                0.02196650579571724,
                -0.01868402399122715,
                -0.031015142798423767,
                0.008050213567912579,
                -0.007451249286532402,
                -0.01280044112354517,
                0.023681672289967537,
                0.040233314037323,
                -0.01374070718884468,
                0.03503258153796196,
                -0.034434884786605835,
                -0.027046391740441322,
                0.006735044065862894
            ],
            [
                -0.011560158804059029,
                -0.0063106524758040905,
                -0.00942745991051197,
                0.025088706985116005,
                0.013363497331738472,
                0.016938719898462296,
                0.04157472774386406,
                -0.005233163014054298,
                0.05252679064869881,
                0.018798474222421646,
                0.028762228786945343,
                0.03779076039791107,
                0.0026467046700417995,
                0.015013238415122032,
                -0.0034909334499388933,
                -0.02692798711359501,
                0.020879710093140602,
                0.03330321982502937,
                -0.010897533968091011,
                0.0005452957702800632,
                -0.006378781981766224,
                0.016682695597410202,
                0.017002128064632416,
                -0.03133794665336609,
                0.010823201388120651,
                0.00839775800704956,
                -0.0405300036072731,
                0.024412164464592934,
                0.025621086359024048,
                0.012973201461136341,
                0.00674663670361042,
                -0.0058871726505458355,
                0.005965119227766991,
                0.005056701600551605,
                -0.03229677677154541,
                -0.030024351552128792,
                0.030736686661839485,
                0.009774222038686275,
                -0.018121762201189995,
                -0.007109628990292549,
                0.001583683188073337,
                0.01621505618095398,
                0.004383595194667578,
                0.01296297274529934,
                -0.01094038225710392,
                -0.041005831211805344,
                -0.001966530689969659,
                -0.0070610009133815765,
                -0.014445810578763485,
                0.0003397995897103101,
                -0.00538517814129591,
                -0.029164666309952736,
                0.013425322249531746,
                -0.020011374726891518,
                0.0045478506945073605,
                -0.0018932962557300925,
                0.028620915487408638,
                0.00817919708788395,
                0.019108561798930168,
                0.027305826544761658,
                0.005469727795571089,
                0.015300856903195381,
                0.011340422555804253,
                0.016475412994623184,
                0.022020699456334114,
                0.0239733774214983,
                -0.011598432436585426,
                0.0001931483275257051,
                -0.0361613854765892,
                -0.04231901466846466,
                -0.02029227465391159,
                -0.021321753039956093,
                -0.004330781754106283,
                -0.0003782748244702816,
                0.02361433394253254,
                0.01740371063351631,
                0.0011147124459967017,
                -0.0032779155299067497,
                0.01943323202431202,
                -0.002241524402052164,
                -0.013243417255580425,
                0.011471301317214966,
                0.0073093390092253685,
                -0.023716948926448822,
                -0.008696187287569046,
                0.004104443360120058,
                -0.017581669613718987,
                0.020298443734645844,
                0.010084153153002262,
                -0.0010242051212117076,
                -0.010237189941108227,
                0.05776731297373772,
                -0.0005716124433092773,
                -0.0012286966666579247,
                -0.050769612193107605,
                -0.017340509220957756,
                -0.00722168292850256,
                0.03429188206791878,
                -0.004517465829849243,
                -0.017961470410227776
            ],
            [
                -0.01378578506410122,
                -0.0015038042329251766,
                -0.011395726352930069,
                0.03497134894132614,
                -0.0064471568912267685,
                0.033035244792699814,
                -0.01773524284362793,
                -0.035321153700351715,
                0.009943082928657532,
                -0.02814864180982113,
                -0.02131946012377739,
                -0.029700521379709244,
                0.0005144057795405388,
                -0.022708410397171974,
                0.02334940992295742,
                -0.04207601770758629,
                0.02861875854432583,
                0.009431913495063782,
                -0.03266002982854843,
                -0.002895236946642399,
                0.018003882840275764,
                -0.013656028546392918,
                -0.018668754026293755,
                0.006015409249812365,
                0.025558093562722206,
                -0.031245678663253784,
                -0.027639782056212425,
                0.0085510965436697,
                0.025167474523186684,
                -0.002834994811564684,
                -0.01833788864314556,
                -0.04519955441355705,
                0.029411250725388527,
                -0.0020003486424684525,
                -0.022065643221139908,
                0.017621297389268875,
                -0.034331098198890686,
                0.015133986249566078,
                -0.0004926589317619801,
                -0.020644348114728928,
                -0.047443412244319916,
                0.0026263787876814604,
                -0.019523583352565765,
                0.009277787990868092,
                -0.035691823810338974,
                0.0011064240243285894,
                -0.005443524569272995,
                0.013185176067054272,
                -0.008282523602247238,
                -0.007868212647736073,
                -0.012126452289521694,
                -0.002316768979653716,
                0.0029090119060128927,
                0.0008442216203548014,
                -0.007053082808852196,
                -0.03558703511953354,
                -0.0403011217713356,
                -0.03130625560879707,
                -0.007571287453174591,
                -0.0138851935043931,
                -0.031155042350292206,
                0.04210064560174942,
                0.03342559561133385,
                0.02642299421131611,
                -0.007067937403917313,
                -0.018998263403773308,
                0.011670340783894062,
                0.025838926434516907,
                -0.03353288769721985,
                -0.024991260841488838,
                0.012133307754993439,
                -0.01935204304754734,
                0.044349294155836105,
                -0.022088775411248207,
                -0.0005278461030684412,
                0.012526257894933224,
                -0.01474210899323225,
                -0.0011679752497002482,
                -0.005737124942243099,
                -0.005886558443307877,
                0.036808162927627563,
                -0.031566642224788666,
                0.006036694161593914,
                -0.04964151978492737,
                -0.03523705527186394,
                0.008673817850649357,
                0.0029949236195534468,
                0.009762738831341267,
                -0.024540048092603683,
                0.0208661500364542,
                -0.008545083925127983,
                -0.01809118129312992,
                -0.021316850557923317,
                0.0074650561437010765,
                -0.022766979411244392,
                -0.0070527163334190845,
                -0.02654399536550045,
                -0.02489544078707695,
                0.016948701813817024,
                -0.01972350664436817
            ],
            [
                0.010361467488110065,
                0.012973933480679989,
                0.015064585953950882,
                -0.00877868290990591,
                0.0014891974860802293,
                -0.03136783093214035,
                0.013878227211534977,
                0.0020740795880556107,
                -0.0049875397235155106,
                -0.025518611073493958,
                0.01836223527789116,
                0.026104699820280075,
                0.019593259319663048,
                -0.0071457852609455585,
                -0.006565568502992392,
                0.012434610165655613,
                -0.05524017661809921,
                0.02473732829093933,
                -0.018071139231324196,
                0.005186381284147501,
                -0.010513421148061752,
                -0.018575487658381462,
                -0.026903240010142326,
                -0.005465441849082708,
                0.030099796131253242,
                0.010208885185420513,
                0.01745014823973179,
                0.0015390646876767278,
                -0.005639106500893831,
                -0.0047077941708266735,
                -0.027592254802584648,
                0.005061544012278318,
                -0.036131199449300766,
                -0.006500004790723324,
                0.02588367648422718,
                0.04024233669042587,
                0.011908682063221931,
                -0.015508037991821766,
                0.01424257829785347,
                0.040990203619003296,
                0.008514327928423882,
                0.0017614077078178525,
                -0.0026803978253155947,
                0.009430638514459133,
                -0.03184622898697853,
                -0.04782610386610031,
                0.012617855332791805,
                0.012700125575065613,
                -0.01055113971233368,
                0.0017502423143014312,
                0.004929082468152046,
                0.0033475311938673258,
                -0.003929294645786285,
                -0.023180926218628883,
                0.004981414880603552,
                -0.06773144006729126,
                0.028366416692733765,
                -0.027836395427584648,
                0.00025133174494840205,
                -0.023194579407572746,
                0.032076314091682434,
                0.012643406167626381,
                0.011150052770972252,
                0.016101565212011337,
                -0.02032623067498207,
                -0.004151129629462957,
                0.02221355214715004,
                0.03174087777733803,
                0.007476238999515772,
                0.00783912930637598,
                0.00964801199734211,
                0.007584826555103064,
                0.019343432039022446,
                0.004963260609656572,
                2.9923072361270897e-05,
                -0.023204708471894264,
                -0.007204077206552029,
                -0.021444130688905716,
                0.012179069221019745,
                -0.013376782648265362,
                -0.0004313096287660301,
                -0.01355668343603611,
                -0.006444025319069624,
                -0.017907876521348953,
                -0.035271186381578445,
                0.007954683154821396,
                -0.026317434385418892,
                0.021804161369800568,
                -0.010939679108560085,
                -0.007139925844967365,
                0.014844990335404873,
                0.003161451779305935,
                -0.014063247479498386,
                0.04877171292901039,
                -0.0026085530407726765,
                0.02190159633755684,
                -0.0390058197081089,
                0.02233649231493473,
                0.02337082289159298,
                0.035585690289735794
            ],
            [
                0.008906113915145397,
                0.007312911096960306,
                -0.00112363719381392,
                0.0032916045747697353,
                -0.010574706830084324,
                0.02980622462928295,
                0.020812027156352997,
                -0.027913004159927368,
                -0.0009208829724229872,
                -0.01350310817360878,
                0.015856698155403137,
                0.003253223840147257,
                -0.008431249298155308,
                -0.02135809324681759,
                -0.039582107216119766,
                0.008330468088388443,
                0.001885392121039331,
                -0.020637938752770424,
                0.011098422110080719,
                -0.0293730441480875,
                0.03467149659991264,
                0.028442148119211197,
                -0.026974817737936974,
                0.011800114996731281,
                -0.03438689559698105,
                0.01057738158851862,
                0.00883958674967289,
                0.007651755586266518,
                0.008514400571584702,
                -0.03672303631901741,
                -0.03527243062853813,
                0.01632104068994522,
                0.014502225443720818,
                0.022469373419880867,
                0.0015619579935446382,
                -0.016039883717894554,
                -0.02053888514637947,
                0.036702558398246765,
                0.02693827450275421,
                -0.02230791002511978,
                0.024889593943953514,
                0.0011472412152215838,
                0.01796756684780121,
                0.016414493322372437,
                -0.04540230706334114,
                0.01280014868825674,
                0.03252276033163071,
                -0.009469633921980858,
                0.005008410196751356,
                0.02311711013317108,
                -0.04134618863463402,
                -0.0177182424813509,
                -0.0113362492993474,
                -0.014483999460935593,
                -0.0213876161724329,
                -0.015621406957507133,
                -0.019459567964076996,
                0.020094914361834526,
                0.04584800451993942,
                0.024676231667399406,
                -0.010803625918924809,
                0.014320502988994122,
                -0.015904763713479042,
                0.003001834498718381,
                0.03145584836602211,
                -0.018418727442622185,
                0.01613028161227703,
                0.00936000794172287,
                -0.03679827228188515,
                0.010656677186489105,
                0.01645589992403984,
                -0.0032450351864099503,
                -0.006987824570387602,
                0.006609232164919376,
                0.013846755027770996,
                -0.01513451524078846,
                0.05034007504582405,
                0.010923347435891628,
                0.03215073049068451,
                0.004260485991835594,
                0.023879092186689377,
                0.0035346834920346737,
                0.013033333234488964,
                0.01102747954428196,
                -0.006889654789119959,
                0.016803916543722153,
                0.03466612100601196,
                -0.01648608222603798,
                0.020860476419329643,
                0.008647847920656204,
                -0.0299090426415205,
                0.016068454831838608,
                -0.012861214578151703,
                -0.004480899777263403,
                0.00663294130936265,
                -0.010711985640227795,
                -0.009737657383084297,
                0.00449541537091136,
                0.011800178326666355,
                -0.0062891882844269276
            ],
            [
                0.056825242936611176,
                -0.01761912740767002,
                0.0178705882281065,
                0.009796438738703728,
                -0.027282336726784706,
                0.003738000290468335,
                -0.01560218445956707,
                0.0017252302495762706,
                0.01919948123395443,
                0.01946951635181904,
                -0.0069137876853346825,
                0.01221237052232027,
                0.012442079372704029,
                0.010058823972940445,
                -0.0022822667378932238,
                0.01945732720196247,
                0.02614811435341835,
                -0.008719051256775856,
                0.015473982319235802,
                0.0019791985396295786,
                -0.07571771740913391,
                0.010154848918318748,
                0.021252889186143875,
                -0.005730664357542992,
                0.01108539942651987,
                -0.004257904831320047,
                -0.01806422881782055,
                -0.024385949596762657,
                -0.014335340820252895,
                -0.010936988517642021,
                -0.016096612438559532,
                0.04774690046906471,
                -0.006215090397745371,
                -0.03390331193804741,
                -0.024670429527759552,
                0.004039619583636522,
                -0.012311908416450024,
                0.03371564671397209,
                -0.003277492942288518,
                0.027471696957945824,
                0.0068196943029761314,
                0.017437828704714775,
                -0.012609759345650673,
                -0.007481215056031942,
                0.0008518489776179194,
                -0.012565035372972488,
                0.03342419117689133,
                0.014701866544783115,
                0.038454391062259674,
                -0.02127111330628395,
                0.018845709040760994,
                -0.022633671760559082,
                -0.012385815382003784,
                -0.013655675575137138,
                -0.017304465174674988,
                0.007284175604581833,
                0.0020632019732147455,
                -0.01987600326538086,
                -0.07090252637863159,
                -0.006239807698875666,
                0.02704903483390808,
                0.013212224468588829,
                0.024777311831712723,
                -0.011976545676589012,
                -0.009655801579356194,
                0.015079906210303307,
                -0.007031518965959549,
                0.016552850604057312,
                0.037564635276794434,
                0.007380031049251556,
                -0.0004287927586119622,
                0.02383854240179062,
                -0.007844115607440472,
                0.015129484236240387,
                0.015034080483019352,
                0.011128601618111134,
                0.014062268659472466,
                -0.00967267993837595,
                -0.06335663050413132,
                0.0030351681634783745,
                0.005964838899672031,
                0.0033881282433867455,
                -0.014811434783041477,
                0.02516426518559456,
                -0.015078864060342312,
                0.0179233830422163,
                -0.010937339626252651,
                -0.0027455566450953484,
                -0.001780700753442943,
                0.025030767545104027,
                -0.033122673630714417,
                0.015650153160095215,
                0.03135828301310539,
                0.023914042860269547,
                0.003289981512352824,
                -0.0120509322732687,
                0.021326608955860138,
                0.02631167508661747,
                0.01796869933605194,
                -0.02188207395374775
            ],
            [
                -0.020274588838219643,
                0.011739056557416916,
                0.0021656621247529984,
                0.01775951497256756,
                -0.013553472235798836,
                -0.05009296163916588,
                0.002159685827791691,
                0.023314733058214188,
                0.02132018283009529,
                -0.014016051776707172,
                -0.00801205262541771,
                -0.032911259680986404,
                -0.007107139565050602,
                -0.008687034249305725,
                -0.00918191485106945,
                -0.004413964226841927,
                -0.021153636276721954,
                -0.0032773951534181833,
                -0.012223544530570507,
                -0.002669265493750572,
                -0.037091873586177826,
                -0.021933268755674362,
                0.02480039745569229,
                0.01827801950275898,
                -0.03651488199830055,
                0.0003922737087123096,
                -0.03244969621300697,
                0.004649061243981123,
                0.0010227183811366558,
                0.02525746449828148,
                -0.004331403877586126,
                -0.036886926740407944,
                0.002388841239735484,
                -0.017309699207544327,
                -0.03900821506977081,
                0.02976163662970066,
                -0.023058494552969933,
                0.031887199729681015,
                0.0035723194014281034,
                -0.013985594734549522,
                -0.01862277276813984,
                -0.0015946239000186324,
                -0.007309417240321636,
                -0.008436269126832485,
                -0.0119989775121212,
                0.018459627404808998,
                -0.013894854113459587,
                0.03284534811973572,
                -0.018208539113402367,
                0.003925505559891462,
                -0.011783803813159466,
                0.033069636672735214,
                -0.013271256349980831,
                -0.02054274082183838,
                -0.026570754125714302,
                -0.0027711698785424232,
                0.01922171376645565,
                0.004607369191944599,
                0.005407612770795822,
                0.018549222499132156,
                -0.01043349876999855,
                0.008882453665137291,
                0.015048759058117867,
                0.034602537751197815,
                0.014616787433624268,
                0.000834100297652185,
                0.031686123460531235,
                0.02305730991065502,
                0.018770329654216766,
                -0.008259410038590431,
                0.014139413833618164,
                -0.024926263839006424,
                0.026537876576185226,
                0.00853896513581276,
                -0.0011731638805940747,
                0.007958718575537205,
                -0.0002898155362345278,
                -0.004443727433681488,
                -0.02910943701863289,
                0.024230241775512695,
                -0.01506691426038742,
                0.03857400268316269,
                0.005663854070007801,
                -0.020346639677882195,
                0.01794363558292389,
                0.003952833358198404,
                0.045535773038864136,
                0.020912613719701767,
                0.0062045445665717125,
                -0.015591224655508995,
                -0.02524392679333687,
                -0.0017893692711368203,
                -0.027815844863653183,
                0.0001757541613187641,
                0.013304407708346844,
                0.0028404805343598127,
                -0.009452154859900475,
                0.000345194450346753,
                -0.04460771754384041,
                -0.018253933638334274
            ],
            [
                0.0070878793485462666,
                -0.009475796483457088,
                -0.013039951212704182,
                -0.02708953246474266,
                -0.007591855246573687,
                -0.017378076910972595,
                0.008935848250985146,
                0.031694091856479645,
                0.015201854519546032,
                0.00025189065490849316,
                -0.006542012561112642,
                0.013727733865380287,
                -0.028128568083047867,
                0.034624017775058746,
                0.02251867949962616,
                0.0027707756962627172,
                0.010561998933553696,
                -0.02091696858406067,
                0.05163230001926422,
                -0.030389023944735527,
                0.04073486849665642,
                -0.024767497554421425,
                -0.03621649369597435,
                0.0358395017683506,
                -0.009630128741264343,
                0.036028001457452774,
                0.0159879419952631,
                0.006373670417815447,
                0.018448499962687492,
                -0.027846315875649452,
                -0.03519967943429947,
                -0.007061709649860859,
                -0.011951389722526073,
                -0.042134810239076614,
                -0.03451919928193092,
                -0.003410954028367996,
                0.015610983595252037,
                0.00013311588554643095,
                -0.03827217221260071,
                -0.014605189673602581,
                0.055139150470495224,
                -0.019787482917308807,
                0.029491009190678596,
                -0.022703491151332855,
                0.001872456632554531,
                -0.029817741364240646,
                -0.006319262087345123,
                0.0012092121178284287,
                0.012884330935776234,
                0.008350498043000698,
                -0.012132986448705196,
                -0.02892531268298626,
                -0.0026609255000948906,
                0.032170992344617844,
                -0.019950250163674355,
                0.0211537666618824,
                -0.00945535022765398,
                0.0416189469397068,
                -0.007581815589219332,
                -0.012195768766105175,
                0.019123872742056847,
                -0.004522223956882954,
                0.015907367691397667,
                0.03713652864098549,
                -0.02735445275902748,
                -0.01216701790690422,
                0.023693116381764412,
                -0.031786710023880005,
                0.006824505049735308,
                0.01722579635679722,
                0.0048322961665689945,
                0.0371943935751915,
                0.021975265815854073,
                0.008659157902002335,
                -0.0018781446851789951,
                -0.05227898806333542,
                0.017492765560746193,
                -0.012976400554180145,
                -0.014142801985144615,
                -0.012578411027789116,
                -0.003933320753276348,
                -0.032425038516521454,
                -0.03657636046409607,
                -0.004386487416923046,
                0.007762827444821596,
                0.049906522035598755,
                -0.022520985454320908,
                0.02200598455965519,
                -0.005141878966242075,
                0.008227343671023846,
                -0.00314908055588603,
                -0.012961133383214474,
                0.0007684539305046201,
                -0.02655835449695587,
                -0.0002569186908658594,
                0.012688955292105675,
                -0.022036109119653702,
                0.028203878551721573,
                0.037104472517967224,
                -0.019468123093247414
            ],
            [
                -0.0027255318127572536,
                0.00019517383771017194,
                0.024131208658218384,
                -0.005424057599157095,
                0.010426596738398075,
                -0.039211325347423553,
                0.029897021129727364,
                0.008990093134343624,
                -0.03245437517762184,
                -0.00462371576577425,
                0.029289858415722847,
                0.006921445019543171,
                -0.003938700538128614,
                0.01198981236666441,
                -0.009185170754790306,
                0.015854787081480026,
                0.013833759352564812,
                -0.0010358800645917654,
                -0.025441749021410942,
                0.020151175558567047,
                0.00716467946767807,
                -0.03377941995859146,
                0.026400279253721237,
                -0.03618359565734863,
                -0.036307193338871,
                0.011920745484530926,
                -0.041775017976760864,
                0.03302326425909996,
                -0.014025883749127388,
                -0.015581000596284866,
                0.00837508775293827,
                0.01729525439441204,
                0.01597967930138111,
                -0.006570538505911827,
                0.03661751374602318,
                0.002393658272922039,
                -0.03336220234632492,
                0.006538004148751497,
                0.017435317859053612,
                0.03851385787129402,
                0.002064097672700882,
                -0.026338690891861916,
                0.021679900586605072,
                -0.0157170332968235,
                0.013613903895020485,
                -0.006834670901298523,
                -0.018272506073117256,
                -0.005505790468305349,
                -0.037164200097322464,
                0.0007001711637713015,
                0.048341475427150726,
                0.009713802486658096,
                0.04780123755335808,
                -0.01670476421713829,
                -0.022473854944109917,
                -0.032692231237888336,
                -0.0018953897524625063,
                -0.011109799146652222,
                0.008938172832131386,
                -0.017480799928307533,
                -0.02058844268321991,
                -0.019557267427444458,
                -0.034130487591028214,
                0.013072135858237743,
                0.01772921346127987,
                0.015141488052904606,
                0.009986390359699726,
                -0.0010738350683823228,
                -0.008103037253022194,
                -0.004981029778718948,
                -0.04528114199638367,
                0.028680087998509407,
                0.008428019471466541,
                0.05026252940297127,
                -0.017047710716724396,
                0.018689574673771858,
                0.00886994507163763,
                -0.0066825575195252895,
                -0.0030205906368792057,
                0.03241444379091263,
                0.007102906703948975,
                -0.0031593739986419678,
                -0.009596951305866241,
                0.0312453992664814,
                -0.035670310258865356,
                0.019420960918068886,
                -0.013974657282233238,
                -0.025868313387036324,
                0.01411043293774128,
                0.002235641935840249,
                0.023467620834708214,
                -0.0017687603831291199,
                0.030714843422174454,
